digraph Tree {
node [shape=box, fontname="helvetica"] ;
edge [fontname="helvetica"] ;
0 [label="x[0] <= 0.465\ngini = 0.362\nsamples = 11249\nvalue = [8575, 2674]"] ;
1 [label="x[2] <= 2.5\ngini = 0.476\nsamples = 3127\nvalue = [1221, 1906]"] ;
0 -> 1 [labeldistance=2.5, labelangle=45, headlabel="True"] ;
2 [label="x[1] <= 0.575\ngini = 0.216\nsamples = 1304\nvalue = [161, 1143]"] ;
1 -> 2 ;
3 [label="x[1] <= 0.445\ngini = 0.101\nsamples = 1203\nvalue = [64, 1139]"] ;
2 -> 3 ;
4 [label="gini = 0.0\nsamples = 31\nvalue = [31, 0]"] ;
3 -> 4 ;
5 [label="x[3] <= 125.5\ngini = 0.055\nsamples = 1172\nvalue = [33, 1139]"] ;
3 -> 5 ;
6 [label="gini = 0.0\nsamples = 10\nvalue = [10, 0]"] ;
5 -> 6 ;
7 [label="x[3] <= 163.5\ngini = 0.039\nsamples = 1162\nvalue = [23, 1139]"] ;
5 -> 7 ;
8 [label="x[0] <= 0.34\ngini = 0.017\nsamples = 1144\nvalue = [10, 1134]"] ;
7 -> 8 ;
9 [label="x[3] <= 140.0\ngini = 0.375\nsamples = 8\nvalue = [6, 2]"] ;
8 -> 9 ;
10 [label="gini = 0.0\nsamples = 2\nvalue = [0, 2]"] ;
9 -> 10 ;
11 [label="gini = 0.0\nsamples = 6\nvalue = [6, 0]"] ;
9 -> 11 ;
12 [label="x[7] <= 1.5\ngini = 0.007\nsamples = 1136\nvalue = [4, 1132]"] ;
8 -> 12 ;
13 [label="x[3] <= 150.5\ngini = 0.002\nsamples = 1097\nvalue = [1, 1096]"] ;
12 -> 13 ;
14 [label="gini = 0.0\nsamples = 749\nvalue = [0, 749]"] ;
13 -> 14 ;
15 [label="x[3] <= 151.5\ngini = 0.006\nsamples = 348\nvalue = [1, 347]"] ;
13 -> 15 ;
16 [label="x[0] <= 0.415\ngini = 0.051\nsamples = 38\nvalue = [1, 37]"] ;
15 -> 16 ;
17 [label="gini = 0.0\nsamples = 28\nvalue = [0, 28]"] ;
16 -> 17 ;
18 [label="x[0] <= 0.425\ngini = 0.18\nsamples = 10\nvalue = [1, 9]"] ;
16 -> 18 ;
19 [label="gini = 0.0\nsamples = 1\nvalue = [1, 0]"] ;
18 -> 19 ;
20 [label="gini = 0.0\nsamples = 9\nvalue = [0, 9]"] ;
18 -> 20 ;
21 [label="gini = 0.0\nsamples = 310\nvalue = [0, 310]"] ;
15 -> 21 ;
22 [label="x[5] <= 0.5\ngini = 0.142\nsamples = 39\nvalue = [3, 36]"] ;
12 -> 22 ;
23 [label="x[0] <= 0.375\ngini = 0.1\nsamples = 38\nvalue = [2, 36]"] ;
22 -> 23 ;
24 [label="x[1] <= 0.495\ngini = 0.375\nsamples = 8\nvalue = [2, 6]"] ;
23 -> 24 ;
25 [label="gini = 0.0\nsamples = 6\nvalue = [0, 6]"] ;
24 -> 25 ;
26 [label="gini = 0.0\nsamples = 2\nvalue = [2, 0]"] ;
24 -> 26 ;
27 [label="gini = 0.0\nsamples = 30\nvalue = [0, 30]"] ;
23 -> 27 ;
28 [label="gini = 0.0\nsamples = 1\nvalue = [1, 0]"] ;
22 -> 28 ;
29 [label="x[3] <= 234.0\ngini = 0.401\nsamples = 18\nvalue = [13, 5]"] ;
7 -> 29 ;
30 [label="gini = 0.0\nsamples = 12\nvalue = [12, 0]"] ;
29 -> 30 ;
31 [label="x[3] <= 266.0\ngini = 0.278\nsamples = 6\nvalue = [1, 5]"] ;
29 -> 31 ;
32 [label="gini = 0.0\nsamples = 5\nvalue = [0, 5]"] ;
31 -> 32 ;
33 [label="gini = 0.0\nsamples = 1\nvalue = [1, 0]"] ;
31 -> 33 ;
34 [label="x[3] <= 280.0\ngini = 0.076\nsamples = 101\nvalue = [97, 4]"] ;
2 -> 34 ;
35 [label="x[3] <= 153.0\ngini = 0.04\nsamples = 98\nvalue = [96.0, 2.0]"] ;
34 -> 35 ;
36 [label="x[3] <= 150.0\ngini = 0.133\nsamples = 28\nvalue = [26, 2]"] ;
35 -> 36 ;
37 [label="gini = 0.0\nsamples = 26\nvalue = [26, 0]"] ;
36 -> 37 ;
38 [label="gini = 0.0\nsamples = 2\nvalue = [0, 2]"] ;
36 -> 38 ;
39 [label="gini = 0.0\nsamples = 70\nvalue = [70, 0]"] ;
35 -> 39 ;
40 [label="x[0] <= 0.415\ngini = 0.444\nsamples = 3\nvalue = [1, 2]"] ;
34 -> 40 ;
41 [label="gini = 0.0\nsamples = 2\nvalue = [0, 2]"] ;
40 -> 41 ;
42 [label="gini = 0.0\nsamples = 1\nvalue = [1, 0]"] ;
40 -> 42 ;
43 [label="x[0] <= 0.115\ngini = 0.487\nsamples = 1823\nvalue = [1060, 763]"] ;
1 -> 43 ;
44 [label="gini = 0.0\nsamples = 674\nvalue = [0, 674]"] ;
43 -> 44 ;
45 [label="x[2] <= 6.5\ngini = 0.143\nsamples = 1149\nvalue = [1060.0, 89.0]"] ;
43 -> 45 ;
46 [label="x[3] <= 289.0\ngini = 0.128\nsamples = 1138\nvalue = [1060, 78]"] ;
45 -> 46 ;
47 [label="x[1] <= 0.995\ngini = 0.113\nsamples = 1128\nvalue = [1060, 68]"] ;
46 -> 47 ;
48 [label="x[0] <= 0.305\ngini = 0.105\nsamples = 1116\nvalue = [1054, 62]"] ;
47 -> 48 ;
49 [label="x[0] <= 0.175\ngini = 0.07\nsamples = 692\nvalue = [667.0, 25.0]"] ;
48 -> 49 ;
50 [label="x[4] <= 3.5\ngini = 0.11\nsamples = 256\nvalue = [241, 15]"] ;
49 -> 50 ;
51 [label="x[1] <= 0.77\ngini = 0.231\nsamples = 60\nvalue = [52, 8]"] ;
50 -> 51 ;
52 [label="x[0] <= 0.155\ngini = 0.136\nsamples = 41\nvalue = [38, 3]"] ;
51 -> 52 ;
53 [label="x[0] <= 0.135\ngini = 0.291\nsamples = 17\nvalue = [14, 3]"] ;
52 -> 53 ;
54 [label="gini = 0.0\nsamples = 7\nvalue = [7, 0]"] ;
53 -> 54 ;
55 [label="x[7] <= 0.5\ngini = 0.42\nsamples = 10\nvalue = [7, 3]"] ;
53 -> 55 ;
56 [label="x[3] <= 251.5\ngini = 0.245\nsamples = 7\nvalue = [6, 1]"] ;
55 -> 56 ;
57 [label="gini = 0.0\nsamples = 5\nvalue = [5, 0]"] ;
56 -> 57 ;
58 [label="x[3] <= 260.5\ngini = 0.5\nsamples = 2\nvalue = [1, 1]"] ;
56 -> 58 ;
59 [label="gini = 0.0\nsamples = 1\nvalue = [0, 1]"] ;
58 -> 59 ;
60 [label="gini = 0.0\nsamples = 1\nvalue = [1, 0]"] ;
58 -> 60 ;
61 [label="x[7] <= 1.5\ngini = 0.444\nsamples = 3\nvalue = [1, 2]"] ;
55 -> 61 ;
62 [label="gini = 0.0\nsamples = 2\nvalue = [0, 2]"] ;
61 -> 62 ;
63 [label="gini = 0.0\nsamples = 1\nvalue = [1, 0]"] ;
61 -> 63 ;
64 [label="gini = 0.0\nsamples = 24\nvalue = [24, 0]"] ;
52 -> 64 ;
65 [label="x[0] <= 0.165\ngini = 0.388\nsamples = 19\nvalue = [14, 5]"] ;
51 -> 65 ;
66 [label="x[3] <= 154.0\ngini = 0.219\nsamples = 16\nvalue = [14, 2]"] ;
65 -> 66 ;
67 [label="x[0] <= 0.14\ngini = 0.48\nsamples = 5\nvalue = [3, 2]"] ;
66 -> 67 ;
68 [label="x[1] <= 0.875\ngini = 0.444\nsamples = 3\nvalue = [1, 2]"] ;
67 -> 68 ;
69 [label="gini = 0.0\nsamples = 2\nvalue = [0, 2]"] ;
68 -> 69 ;
70 [label="gini = 0.0\nsamples = 1\nvalue = [1, 0]"] ;
68 -> 70 ;
71 [label="gini = 0.0\nsamples = 2\nvalue = [2, 0]"] ;
67 -> 71 ;
72 [label="gini = 0.0\nsamples = 11\nvalue = [11, 0]"] ;
66 -> 72 ;
73 [label="gini = 0.0\nsamples = 3\nvalue = [0, 3]"] ;
65 -> 73 ;
74 [label="x[1] <= 0.755\ngini = 0.069\nsamples = 196\nvalue = [189, 7]"] ;
50 -> 74 ;
75 [label="x[1] <= 0.745\ngini = 0.126\nsamples = 104\nvalue = [97, 7]"] ;
74 -> 75 ;
76 [label="x[3] <= 159.0\ngini = 0.095\nsamples = 100\nvalue = [95, 5]"] ;
75 -> 76 ;
77 [label="x[3] <= 156.0\ngini = 0.227\nsamples = 23\nvalue = [20, 3]"] ;
76 -> 77 ;
78 [label="x[7] <= 1.5\ngini = 0.091\nsamples = 21\nvalue = [20, 1]"] ;
77 -> 78 ;
79 [label="gini = 0.0\nsamples = 16\nvalue = [16, 0]"] ;
78 -> 79 ;
80 [label="x[4] <= 5.0\ngini = 0.32\nsamples = 5\nvalue = [4, 1]"] ;
78 -> 80 ;
81 [label="x[0] <= 0.14\ngini = 0.5\nsamples = 2\nvalue = [1, 1]"] ;
80 -> 81 ;
82 [label="gini = 0.0\nsamples = 1\nvalue = [1, 0]"] ;
81 -> 82 ;
83 [label="gini = 0.0\nsamples = 1\nvalue = [0, 1]"] ;
81 -> 83 ;
84 [label="gini = 0.0\nsamples = 3\nvalue = [3, 0]"] ;
80 -> 84 ;
85 [label="gini = 0.0\nsamples = 2\nvalue = [0, 2]"] ;
77 -> 85 ;
86 [label="x[3] <= 276.5\ngini = 0.051\nsamples = 77\nvalue = [75, 2]"] ;
76 -> 86 ;
87 [label="x[0] <= 0.165\ngini = 0.027\nsamples = 72\nvalue = [71, 1]"] ;
86 -> 87 ;
88 [label="gini = 0.0\nsamples = 60\nvalue = [60, 0]"] ;
87 -> 88 ;
89 [label="x[1] <= 0.555\ngini = 0.153\nsamples = 12\nvalue = [11, 1]"] ;
87 -> 89 ;
90 [label="x[7] <= 0.5\ngini = 0.32\nsamples = 5\nvalue = [4, 1]"] ;
89 -> 90 ;
91 [label="gini = 0.0\nsamples = 3\nvalue = [3, 0]"] ;
90 -> 91 ;
92 [label="x[7] <= 1.5\ngini = 0.5\nsamples = 2\nvalue = [1, 1]"] ;
90 -> 92 ;
93 [label="gini = 0.0\nsamples = 1\nvalue = [0, 1]"] ;
92 -> 93 ;
94 [label="gini = 0.0\nsamples = 1\nvalue = [1, 0]"] ;
92 -> 94 ;
95 [label="gini = 0.0\nsamples = 7\nvalue = [7, 0]"] ;
89 -> 95 ;
96 [label="x[3] <= 279.0\ngini = 0.32\nsamples = 5\nvalue = [4, 1]"] ;
86 -> 96 ;
97 [label="gini = 0.0\nsamples = 1\nvalue = [0, 1]"] ;
96 -> 97 ;
98 [label="gini = 0.0\nsamples = 4\nvalue = [4, 0]"] ;
96 -> 98 ;
99 [label="x[4] <= 6.5\ngini = 0.5\nsamples = 4\nvalue = [2, 2]"] ;
75 -> 99 ;
100 [label="x[6] <= 0.5\ngini = 0.444\nsamples = 3\nvalue = [1, 2]"] ;
99 -> 100 ;
101 [label="gini = 0.0\nsamples = 2\nvalue = [0, 2]"] ;
100 -> 101 ;
102 [label="gini = 0.0\nsamples = 1\nvalue = [1, 0]"] ;
100 -> 102 ;
103 [label="gini = 0.0\nsamples = 1\nvalue = [1, 0]"] ;
99 -> 103 ;
104 [label="gini = 0.0\nsamples = 92\nvalue = [92, 0]"] ;
74 -> 104 ;
105 [label="x[1] <= 0.505\ngini = 0.045\nsamples = 436\nvalue = [426, 10]"] ;
49 -> 105 ;
106 [label="x[1] <= 0.445\ngini = 0.145\nsamples = 76\nvalue = [70, 6]"] ;
105 -> 106 ;
107 [label="gini = 0.0\nsamples = 39\nvalue = [39, 0]"] ;
106 -> 107 ;
108 [label="x[1] <= 0.465\ngini = 0.272\nsamples = 37\nvalue = [31, 6]"] ;
106 -> 108 ;
109 [label="x[3] <= 239.0\ngini = 0.494\nsamples = 9\nvalue = [5, 4]"] ;
108 -> 109 ;
110 [label="x[3] <= 208.0\ngini = 0.444\nsamples = 6\nvalue = [2, 4]"] ;
109 -> 110 ;
111 [label="gini = 0.0\nsamples = 2\nvalue = [2, 0]"] ;
110 -> 111 ;
112 [label="gini = 0.0\nsamples = 4\nvalue = [0, 4]"] ;
110 -> 112 ;
113 [label="gini = 0.0\nsamples = 3\nvalue = [3, 0]"] ;
109 -> 113 ;
114 [label="x[3] <= 137.0\ngini = 0.133\nsamples = 28\nvalue = [26, 2]"] ;
108 -> 114 ;
115 [label="x[3] <= 130.5\ngini = 0.48\nsamples = 5\nvalue = [3, 2]"] ;
114 -> 115 ;
116 [label="gini = 0.0\nsamples = 3\nvalue = [3, 0]"] ;
115 -> 116 ;
117 [label="gini = 0.0\nsamples = 2\nvalue = [0, 2]"] ;
115 -> 117 ;
118 [label="gini = 0.0\nsamples = 23\nvalue = [23, 0]"] ;
114 -> 118 ;
119 [label="x[1] <= 0.985\ngini = 0.022\nsamples = 360\nvalue = [356, 4]"] ;
105 -> 119 ;
120 [label="x[0] <= 0.295\ngini = 0.017\nsamples = 351\nvalue = [348.0, 3.0]"] ;
119 -> 120 ;
121 [label="x[3] <= 168.5\ngini = 0.012\nsamples = 338\nvalue = [336, 2]"] ;
120 -> 121 ;
122 [label="x[3] <= 167.5\ngini = 0.037\nsamples = 106\nvalue = [104, 2]"] ;
121 -> 122 ;
123 [label="x[2] <= 5.5\ngini = 0.019\nsamples = 103\nvalue = [102.0, 1.0]"] ;
122 -> 123 ;
124 [label="gini = 0.0\nsamples = 84\nvalue = [84, 0]"] ;
123 -> 124 ;
125 [label="x[0] <= 0.205\ngini = 0.1\nsamples = 19\nvalue = [18, 1]"] ;
123 -> 125 ;
126 [label="x[1] <= 0.875\ngini = 0.278\nsamples = 6\nvalue = [5, 1]"] ;
125 -> 126 ;
127 [label="gini = 0.0\nsamples = 4\nvalue = [4, 0]"] ;
126 -> 127 ;
128 [label="x[3] <= 145.0\ngini = 0.5\nsamples = 2\nvalue = [1, 1]"] ;
126 -> 128 ;
129 [label="gini = 0.0\nsamples = 1\nvalue = [0, 1]"] ;
128 -> 129 ;
130 [label="gini = 0.0\nsamples = 1\nvalue = [1, 0]"] ;
128 -> 130 ;
131 [label="gini = 0.0\nsamples = 13\nvalue = [13, 0]"] ;
125 -> 131 ;
132 [label="x[0] <= 0.235\ngini = 0.444\nsamples = 3\nvalue = [2, 1]"] ;
122 -> 132 ;
133 [label="gini = 0.0\nsamples = 1\nvalue = [0, 1]"] ;
132 -> 133 ;
134 [label="gini = 0.0\nsamples = 2\nvalue = [2, 0]"] ;
132 -> 134 ;
135 [label="gini = 0.0\nsamples = 232\nvalue = [232, 0]"] ;
121 -> 135 ;
136 [label="x[3] <= 252.5\ngini = 0.142\nsamples = 13\nvalue = [12, 1]"] ;
120 -> 136 ;
137 [label="gini = 0.0\nsamples = 11\nvalue = [11, 0]"] ;
136 -> 137 ;
138 [label="x[4] <= 4.5\ngini = 0.5\nsamples = 2\nvalue = [1, 1]"] ;
136 -> 138 ;
139 [label="gini = 0.0\nsamples = 1\nvalue = [1, 0]"] ;
138 -> 139 ;
140 [label="gini = 0.0\nsamples = 1\nvalue = [0, 1]"] ;
138 -> 140 ;
141 [label="x[3] <= 194.0\ngini = 0.198\nsamples = 9\nvalue = [8, 1]"] ;
119 -> 141 ;
142 [label="gini = 0.0\nsamples = 7\nvalue = [7, 0]"] ;
141 -> 142 ;
143 [label="x[0] <= 0.205\ngini = 0.5\nsamples = 2\nvalue = [1, 1]"] ;
141 -> 143 ;
144 [label="gini = 0.0\nsamples = 1\nvalue = [1, 0]"] ;
143 -> 144 ;
145 [label="gini = 0.0\nsamples = 1\nvalue = [0, 1]"] ;
143 -> 145 ;
146 [label="x[1] <= 0.525\ngini = 0.159\nsamples = 424\nvalue = [387, 37]"] ;
48 -> 146 ;
147 [label="gini = 0.0\nsamples = 121\nvalue = [121, 0]"] ;
146 -> 147 ;
148 [label="x[3] <= 131.5\ngini = 0.214\nsamples = 303\nvalue = [266, 37]"] ;
146 -> 148 ;
149 [label="gini = 0.0\nsamples = 59\nvalue = [59, 0]"] ;
148 -> 149 ;
150 [label="x[0] <= 0.315\ngini = 0.257\nsamples = 244\nvalue = [207, 37]"] ;
148 -> 150 ;
151 [label="x[2] <= 3.5\ngini = 0.463\nsamples = 22\nvalue = [14, 8]"] ;
150 -> 151 ;
152 [label="gini = 0.0\nsamples = 6\nvalue = [6, 0]"] ;
151 -> 152 ;
153 [label="x[3] <= 192.0\ngini = 0.5\nsamples = 16\nvalue = [8, 8]"] ;
151 -> 153 ;
154 [label="x[4] <= 2.5\ngini = 0.278\nsamples = 6\nvalue = [1, 5]"] ;
153 -> 154 ;
155 [label="gini = 0.0\nsamples = 1\nvalue = [1, 0]"] ;
154 -> 155 ;
156 [label="gini = 0.0\nsamples = 5\nvalue = [0, 5]"] ;
154 -> 156 ;
157 [label="x[4] <= 2.5\ngini = 0.42\nsamples = 10\nvalue = [7, 3]"] ;
153 -> 157 ;
158 [label="gini = 0.0\nsamples = 2\nvalue = [0, 2]"] ;
157 -> 158 ;
159 [label="x[2] <= 5.5\ngini = 0.219\nsamples = 8\nvalue = [7, 1]"] ;
157 -> 159 ;
160 [label="gini = 0.0\nsamples = 6\nvalue = [6, 0]"] ;
159 -> 160 ;
161 [label="x[5] <= 0.5\ngini = 0.5\nsamples = 2\nvalue = [1, 1]"] ;
159 -> 161 ;
162 [label="gini = 0.0\nsamples = 1\nvalue = [0, 1]"] ;
161 -> 162 ;
163 [label="gini = 0.0\nsamples = 1\nvalue = [1, 0]"] ;
161 -> 163 ;
164 [label="x[1] <= 0.535\ngini = 0.227\nsamples = 222\nvalue = [193, 29]"] ;
150 -> 164 ;
165 [label="x[3] <= 190.0\ngini = 0.5\nsamples = 6\nvalue = [3, 3]"] ;
164 -> 165 ;
166 [label="gini = 0.0\nsamples = 3\nvalue = [3, 0]"] ;
165 -> 166 ;
167 [label="gini = 0.0\nsamples = 3\nvalue = [0, 3]"] ;
165 -> 167 ;
168 [label="x[1] <= 0.945\ngini = 0.212\nsamples = 216\nvalue = [190, 26]"] ;
164 -> 168 ;
169 [label="x[2] <= 5.5\ngini = 0.182\nsamples = 197\nvalue = [177, 20]"] ;
168 -> 169 ;
170 [label="x[3] <= 134.5\ngini = 0.129\nsamples = 159\nvalue = [148, 11]"] ;
169 -> 170 ;
171 [label="gini = 0.0\nsamples = 1\nvalue = [0, 1]"] ;
170 -> 171 ;
172 [label="x[1] <= 0.645\ngini = 0.119\nsamples = 158\nvalue = [148, 10]"] ;
170 -> 172 ;
173 [label="gini = 0.0\nsamples = 60\nvalue = [60, 0]"] ;
172 -> 173 ;
174 [label="x[1] <= 0.675\ngini = 0.183\nsamples = 98\nvalue = [88, 10]"] ;
172 -> 174 ;
175 [label="x[7] <= 0.5\ngini = 0.48\nsamples = 10\nvalue = [6, 4]"] ;
174 -> 175 ;
176 [label="x[0] <= 0.33\ngini = 0.444\nsamples = 6\nvalue = [2, 4]"] ;
175 -> 176 ;
177 [label="gini = 0.0\nsamples = 1\nvalue = [1, 0]"] ;
176 -> 177 ;
178 [label="x[1] <= 0.66\ngini = 0.32\nsamples = 5\nvalue = [1, 4]"] ;
176 -> 178 ;
179 [label="x[4] <= 3.0\ngini = 0.444\nsamples = 3\nvalue = [1, 2]"] ;
178 -> 179 ;
180 [label="gini = 0.0\nsamples = 1\nvalue = [1, 0]"] ;
179 -> 180 ;
181 [label="gini = 0.0\nsamples = 2\nvalue = [0, 2]"] ;
179 -> 181 ;
182 [label="gini = 0.0\nsamples = 2\nvalue = [0, 2]"] ;
178 -> 182 ;
183 [label="gini = 0.0\nsamples = 4\nvalue = [4, 0]"] ;
175 -> 183 ;
184 [label="x[1] <= 0.76\ngini = 0.127\nsamples = 88\nvalue = [82, 6]"] ;
174 -> 184 ;
185 [label="x[3] <= 204.5\ngini = 0.214\nsamples = 41\nvalue = [36, 5]"] ;
184 -> 185 ;
186 [label="gini = 0.0\nsamples = 27\nvalue = [27, 0]"] ;
185 -> 186 ;
187 [label="x[2] <= 4.5\ngini = 0.459\nsamples = 14\nvalue = [9, 5]"] ;
185 -> 187 ;
188 [label="x[4] <= 4.5\ngini = 0.494\nsamples = 9\nvalue = [4, 5]"] ;
187 -> 188 ;
189 [label="x[3] <= 236.5\ngini = 0.408\nsamples = 7\nvalue = [2, 5]"] ;
188 -> 189 ;
190 [label="gini = 0.0\nsamples = 4\nvalue = [0, 4]"] ;
189 -> 190 ;
191 [label="x[4] <= 3.0\ngini = 0.444\nsamples = 3\nvalue = [2, 1]"] ;
189 -> 191 ;
192 [label="gini = 0.0\nsamples = 1\nvalue = [0, 1]"] ;
191 -> 192 ;
193 [label="gini = 0.0\nsamples = 2\nvalue = [2, 0]"] ;
191 -> 193 ;
194 [label="gini = 0.0\nsamples = 2\nvalue = [2, 0]"] ;
188 -> 194 ;
195 [label="gini = 0.0\nsamples = 5\nvalue = [5, 0]"] ;
187 -> 195 ;
196 [label="x[3] <= 154.5\ngini = 0.042\nsamples = 47\nvalue = [46, 1]"] ;
184 -> 196 ;
197 [label="x[3] <= 152.5\ngini = 0.245\nsamples = 7\nvalue = [6, 1]"] ;
196 -> 197 ;
198 [label="gini = 0.0\nsamples = 6\nvalue = [6, 0]"] ;
197 -> 198 ;
199 [label="gini = 0.0\nsamples = 1\nvalue = [0, 1]"] ;
197 -> 199 ;
200 [label="gini = 0.0\nsamples = 40\nvalue = [40, 0]"] ;
196 -> 200 ;
201 [label="x[3] <= 151.5\ngini = 0.361\nsamples = 38\nvalue = [29, 9]"] ;
169 -> 201 ;
202 [label="x[0] <= 0.435\ngini = 0.375\nsamples = 4\nvalue = [1, 3]"] ;
201 -> 202 ;
203 [label="gini = 0.0\nsamples = 3\nvalue = [0, 3]"] ;
202 -> 203 ;
204 [label="gini = 0.0\nsamples = 1\nvalue = [1, 0]"] ;
202 -> 204 ;
205 [label="x[3] <= 209.0\ngini = 0.291\nsamples = 34\nvalue = [28, 6]"] ;
201 -> 205 ;
206 [label="gini = 0.0\nsamples = 14\nvalue = [14, 0]"] ;
205 -> 206 ;
207 [label="x[3] <= 220.0\ngini = 0.42\nsamples = 20\nvalue = [14, 6]"] ;
205 -> 207 ;
208 [label="x[7] <= 0.5\ngini = 0.408\nsamples = 7\nvalue = [2, 5]"] ;
207 -> 208 ;
209 [label="x[0] <= 0.37\ngini = 0.278\nsamples = 6\nvalue = [1, 5]"] ;
208 -> 209 ;
210 [label="gini = 0.0\nsamples = 3\nvalue = [0, 3]"] ;
209 -> 210 ;
211 [label="x[0] <= 0.435\ngini = 0.444\nsamples = 3\nvalue = [1, 2]"] ;
209 -> 211 ;
212 [label="gini = 0.0\nsamples = 1\nvalue = [1, 0]"] ;
211 -> 212 ;
213 [label="gini = 0.0\nsamples = 2\nvalue = [0, 2]"] ;
211 -> 213 ;
214 [label="gini = 0.0\nsamples = 1\nvalue = [1, 0]"] ;
208 -> 214 ;
215 [label="x[4] <= 2.5\ngini = 0.142\nsamples = 13\nvalue = [12, 1]"] ;
207 -> 215 ;
216 [label="gini = 0.0\nsamples = 1\nvalue = [0, 1]"] ;
215 -> 216 ;
217 [label="gini = 0.0\nsamples = 12\nvalue = [12, 0]"] ;
215 -> 217 ;
218 [label="x[0] <= 0.355\ngini = 0.432\nsamples = 19\nvalue = [13, 6]"] ;
168 -> 218 ;
219 [label="x[3] <= 258.0\ngini = 0.278\nsamples = 6\nvalue = [1, 5]"] ;
218 -> 219 ;
220 [label="gini = 0.0\nsamples = 5\nvalue = [0, 5]"] ;
219 -> 220 ;
221 [label="gini = 0.0\nsamples = 1\nvalue = [1, 0]"] ;
219 -> 221 ;
222 [label="x[7] <= 1.5\ngini = 0.142\nsamples = 13\nvalue = [12, 1]"] ;
218 -> 222 ;
223 [label="gini = 0.0\nsamples = 12\nvalue = [12, 0]"] ;
222 -> 223 ;
224 [label="gini = 0.0\nsamples = 1\nvalue = [0, 1]"] ;
222 -> 224 ;
225 [label="x[3] <= 190.0\ngini = 0.5\nsamples = 12\nvalue = [6, 6]"] ;
47 -> 225 ;
226 [label="x[0] <= 0.365\ngini = 0.245\nsamples = 7\nvalue = [6, 1]"] ;
225 -> 226 ;
227 [label="gini = 0.0\nsamples = 6\nvalue = [6, 0]"] ;
226 -> 227 ;
228 [label="gini = 0.0\nsamples = 1\nvalue = [0, 1]"] ;
226 -> 228 ;
229 [label="gini = 0.0\nsamples = 5\nvalue = [0, 5]"] ;
225 -> 229 ;
230 [label="gini = 0.0\nsamples = 10\nvalue = [0, 10]"] ;
46 -> 230 ;
231 [label="gini = 0.0\nsamples = 11\nvalue = [0, 11]"] ;
45 -> 231 ;
232 [label="x[4] <= 4.5\ngini = 0.171\nsamples = 8122\nvalue = [7354, 768]"] ;
0 -> 232 [labeldistance=2.5, labelangle=-45, headlabel="False"] ;
233 [label="x[3] <= 290.5\ngini = 0.029\nsamples = 6642\nvalue = [6545, 97]"] ;
232 -> 233 ;
234 [label="x[2] <= 6.5\ngini = 0.028\nsamples = 6638\nvalue = [6545, 93]"] ;
233 -> 234 ;
235 [label="x[2] <= 5.5\ngini = 0.026\nsamples = 6634\nvalue = [6545, 89]"] ;
234 -> 235 ;
236 [label="x[4] <= 3.5\ngini = 0.023\nsamples = 6514\nvalue = [6437, 77]"] ;
235 -> 236 ;
237 [label="x[2] <= 2.5\ngini = 0.015\nsamples = 5524\nvalue = [5482, 42]"] ;
236 -> 237 ;
238 [label="x[3] <= 196.5\ngini = 0.083\nsamples = 322\nvalue = [308, 14]"] ;
237 -> 238 ;
239 [label="x[1] <= 0.895\ngini = 0.012\nsamples = 169\nvalue = [168, 1]"] ;
238 -> 239 ;
240 [label="gini = 0.0\nsamples = 149\nvalue = [149, 0]"] ;
239 -> 240 ;
241 [label="x[0] <= 0.845\ngini = 0.095\nsamples = 20\nvalue = [19, 1]"] ;
239 -> 241 ;
242 [label="gini = 0.0\nsamples = 16\nvalue = [16, 0]"] ;
241 -> 242 ;
243 [label="x[3] <= 162.5\ngini = 0.375\nsamples = 4\nvalue = [3, 1]"] ;
241 -> 243 ;
244 [label="gini = 0.0\nsamples = 3\nvalue = [3, 0]"] ;
243 -> 244 ;
245 [label="gini = 0.0\nsamples = 1\nvalue = [0, 1]"] ;
243 -> 245 ;
246 [label="x[0] <= 0.485\ngini = 0.155\nsamples = 153\nvalue = [140, 13]"] ;
238 -> 246 ;
247 [label="gini = 0.0\nsamples = 3\nvalue = [0, 3]"] ;
246 -> 247 ;
248 [label="x[1] <= 0.985\ngini = 0.124\nsamples = 150\nvalue = [140, 10]"] ;
246 -> 248 ;
249 [label="x[7] <= 0.5\ngini = 0.105\nsamples = 144\nvalue = [136, 8]"] ;
248 -> 249 ;
250 [label="x[1] <= 0.48\ngini = 0.186\nsamples = 77\nvalue = [69, 8]"] ;
249 -> 250 ;
251 [label="x[1] <= 0.445\ngini = 0.5\nsamples = 4\nvalue = [2, 2]"] ;
250 -> 251 ;
252 [label="gini = 0.0\nsamples = 2\nvalue = [2, 0]"] ;
251 -> 252 ;
253 [label="gini = 0.0\nsamples = 2\nvalue = [0, 2]"] ;
251 -> 253 ;
254 [label="x[3] <= 212.0\ngini = 0.151\nsamples = 73\nvalue = [67, 6]"] ;
250 -> 254 ;
255 [label="x[3] <= 209.5\ngini = 0.375\nsamples = 12\nvalue = [9, 3]"] ;
254 -> 255 ;
256 [label="gini = 0.0\nsamples = 9\nvalue = [9, 0]"] ;
255 -> 256 ;
257 [label="gini = 0.0\nsamples = 3\nvalue = [0, 3]"] ;
255 -> 257 ;
258 [label="x[3] <= 254.5\ngini = 0.094\nsamples = 61\nvalue = [58, 3]"] ;
254 -> 258 ;
259 [label="gini = 0.0\nsamples = 35\nvalue = [35, 0]"] ;
258 -> 259 ;
260 [label="x[3] <= 256.0\ngini = 0.204\nsamples = 26\nvalue = [23, 3]"] ;
258 -> 260 ;
261 [label="x[0] <= 0.82\ngini = 0.375\nsamples = 4\nvalue = [1, 3]"] ;
260 -> 261 ;
262 [label="gini = 0.0\nsamples = 3\nvalue = [0, 3]"] ;
261 -> 262 ;
263 [label="gini = 0.0\nsamples = 1\nvalue = [1, 0]"] ;
261 -> 263 ;
264 [label="gini = 0.0\nsamples = 22\nvalue = [22, 0]"] ;
260 -> 264 ;
265 [label="gini = 0.0\nsamples = 67\nvalue = [67, 0]"] ;
249 -> 265 ;
266 [label="x[3] <= 276.0\ngini = 0.444\nsamples = 6\nvalue = [4, 2]"] ;
248 -> 266 ;
267 [label="x[7] <= 0.5\ngini = 0.32\nsamples = 5\nvalue = [4, 1]"] ;
266 -> 267 ;
268 [label="gini = 0.0\nsamples = 1\nvalue = [0, 1]"] ;
267 -> 268 ;
269 [label="gini = 0.0\nsamples = 4\nvalue = [4, 0]"] ;
267 -> 269 ;
270 [label="gini = 0.0\nsamples = 1\nvalue = [0, 1]"] ;
266 -> 270 ;
271 [label="x[0] <= 0.475\ngini = 0.011\nsamples = 5202\nvalue = [5174, 28]"] ;
237 -> 271 ;
272 [label="x[1] <= 0.755\ngini = 0.165\nsamples = 11\nvalue = [10, 1]"] ;
271 -> 272 ;
273 [label="gini = 0.0\nsamples = 10\nvalue = [10, 0]"] ;
272 -> 273 ;
274 [label="gini = 0.0\nsamples = 1\nvalue = [0, 1]"] ;
272 -> 274 ;
275 [label="x[0] <= 0.585\ngini = 0.01\nsamples = 5191\nvalue = [5164, 27]"] ;
271 -> 275 ;
276 [label="x[2] <= 3.5\ngini = 0.024\nsamples = 1064\nvalue = [1051, 13]"] ;
275 -> 276 ;
277 [label="x[0] <= 0.485\ngini = 0.004\nsamples = 463\nvalue = [462, 1]"] ;
276 -> 277 ;
278 [label="x[1] <= 0.875\ngini = 0.057\nsamples = 34\nvalue = [33, 1]"] ;
277 -> 278 ;
279 [label="gini = 0.0\nsamples = 26\nvalue = [26, 0]"] ;
278 -> 279 ;
280 [label="x[1] <= 0.885\ngini = 0.219\nsamples = 8\nvalue = [7, 1]"] ;
278 -> 280 ;
281 [label="gini = 0.0\nsamples = 1\nvalue = [0, 1]"] ;
280 -> 281 ;
282 [label="gini = 0.0\nsamples = 7\nvalue = [7, 0]"] ;
280 -> 282 ;
283 [label="gini = 0.0\nsamples = 429\nvalue = [429, 0]"] ;
277 -> 283 ;
284 [label="x[0] <= 0.535\ngini = 0.039\nsamples = 601\nvalue = [589, 12]"] ;
276 -> 284 ;
285 [label="x[3] <= 139.0\ngini = 0.012\nsamples = 332\nvalue = [330, 2]"] ;
284 -> 285 ;
286 [label="x[3] <= 137.5\ngini = 0.159\nsamples = 23\nvalue = [21, 2]"] ;
285 -> 286 ;
287 [label="x[1] <= 0.785\ngini = 0.087\nsamples = 22\nvalue = [21, 1]"] ;
286 -> 287 ;
288 [label="gini = 0.0\nsamples = 14\nvalue = [14, 0]"] ;
287 -> 288 ;
289 [label="x[1] <= 0.8\ngini = 0.219\nsamples = 8\nvalue = [7, 1]"] ;
287 -> 289 ;
290 [label="gini = 0.0\nsamples = 1\nvalue = [0, 1]"] ;
289 -> 290 ;
291 [label="gini = 0.0\nsamples = 7\nvalue = [7, 0]"] ;
289 -> 291 ;
292 [label="gini = 0.0\nsamples = 1\nvalue = [0, 1]"] ;
286 -> 292 ;
293 [label="gini = 0.0\nsamples = 309\nvalue = [309, 0]"] ;
285 -> 293 ;
294 [label="x[3] <= 235.5\ngini = 0.072\nsamples = 269\nvalue = [259, 10]"] ;
284 -> 294 ;
295 [label="x[0] <= 0.545\ngini = 0.042\nsamples = 185\nvalue = [181, 4]"] ;
294 -> 295 ;
296 [label="x[3] <= 168.5\ngini = 0.17\nsamples = 32\nvalue = [29, 3]"] ;
295 -> 296 ;
297 [label="x[3] <= 163.5\ngini = 0.375\nsamples = 12\nvalue = [9, 3]"] ;
296 -> 297 ;
298 [label="gini = 0.0\nsamples = 9\nvalue = [9, 0]"] ;
297 -> 298 ;
299 [label="gini = 0.0\nsamples = 3\nvalue = [0, 3]"] ;
297 -> 299 ;
300 [label="gini = 0.0\nsamples = 20\nvalue = [20, 0]"] ;
296 -> 300 ;
301 [label="x[3] <= 218.5\ngini = 0.013\nsamples = 153\nvalue = [152, 1]"] ;
295 -> 301 ;
302 [label="gini = 0.0\nsamples = 126\nvalue = [126, 0]"] ;
301 -> 302 ;
303 [label="x[3] <= 219.5\ngini = 0.071\nsamples = 27\nvalue = [26, 1]"] ;
301 -> 303 ;
304 [label="gini = 0.0\nsamples = 1\nvalue = [0, 1]"] ;
303 -> 304 ;
305 [label="gini = 0.0\nsamples = 26\nvalue = [26, 0]"] ;
303 -> 305 ;
306 [label="x[3] <= 238.5\ngini = 0.133\nsamples = 84\nvalue = [78, 6]"] ;
294 -> 306 ;
307 [label="x[0] <= 0.57\ngini = 0.5\nsamples = 8\nvalue = [4, 4]"] ;
306 -> 307 ;
308 [label="x[3] <= 236.5\ngini = 0.32\nsamples = 5\nvalue = [4, 1]"] ;
307 -> 308 ;
309 [label="gini = 0.0\nsamples = 1\nvalue = [0, 1]"] ;
308 -> 309 ;
310 [label="gini = 0.0\nsamples = 4\nvalue = [4, 0]"] ;
308 -> 310 ;
311 [label="gini = 0.0\nsamples = 3\nvalue = [0, 3]"] ;
307 -> 311 ;
312 [label="x[1] <= 0.565\ngini = 0.051\nsamples = 76\nvalue = [74, 2]"] ;
306 -> 312 ;
313 [label="x[3] <= 259.0\ngini = 0.18\nsamples = 10\nvalue = [9, 1]"] ;
312 -> 313 ;
314 [label="gini = 0.0\nsamples = 9\nvalue = [9, 0]"] ;
313 -> 314 ;
315 [label="gini = 0.0\nsamples = 1\nvalue = [0, 1]"] ;
313 -> 315 ;
316 [label="x[1] <= 0.855\ngini = 0.03\nsamples = 66\nvalue = [65, 1]"] ;
312 -> 316 ;
317 [label="gini = 0.0\nsamples = 47\nvalue = [47, 0]"] ;
316 -> 317 ;
318 [label="x[1] <= 0.87\ngini = 0.1\nsamples = 19\nvalue = [18, 1]"] ;
316 -> 318 ;
319 [label="x[7] <= 0.5\ngini = 0.5\nsamples = 2\nvalue = [1, 1]"] ;
318 -> 319 ;
320 [label="gini = 0.0\nsamples = 1\nvalue = [1, 0]"] ;
319 -> 320 ;
321 [label="gini = 0.0\nsamples = 1\nvalue = [0, 1]"] ;
319 -> 321 ;
322 [label="gini = 0.0\nsamples = 17\nvalue = [17, 0]"] ;
318 -> 322 ;
323 [label="x[3] <= 262.5\ngini = 0.007\nsamples = 4127\nvalue = [4113, 14]"] ;
275 -> 323 ;
324 [label="x[6] <= 0.5\ngini = 0.005\nsamples = 3760\nvalue = [3751, 9]"] ;
323 -> 324 ;
325 [label="x[1] <= 0.455\ngini = 0.004\nsamples = 3674\nvalue = [3667, 7]"] ;
324 -> 325 ;
326 [label="x[1] <= 0.445\ngini = 0.059\nsamples = 33\nvalue = [32, 1]"] ;
325 -> 326 ;
327 [label="gini = 0.0\nsamples = 28\nvalue = [28, 0]"] ;
326 -> 327 ;
328 [label="x[0] <= 0.77\ngini = 0.32\nsamples = 5\nvalue = [4, 1]"] ;
326 -> 328 ;
329 [label="gini = 0.0\nsamples = 4\nvalue = [4, 0]"] ;
328 -> 329 ;
330 [label="gini = 0.0\nsamples = 1\nvalue = [0, 1]"] ;
328 -> 330 ;
331 [label="x[1] <= 0.995\ngini = 0.003\nsamples = 3641\nvalue = [3635, 6]"] ;
325 -> 331 ;
332 [label="x[2] <= 3.5\ngini = 0.003\nsamples = 3601\nvalue = [3596, 5]"] ;
331 -> 332 ;
333 [label="x[3] <= 179.5\ngini = 0.007\nsamples = 1484\nvalue = [1479, 5]"] ;
332 -> 333 ;
334 [label="x[3] <= 178.5\ngini = 0.014\nsamples = 585\nvalue = [581, 4]"] ;
333 -> 334 ;
335 [label="x[0] <= 0.775\ngini = 0.01\nsamples = 570\nvalue = [567, 3]"] ;
334 -> 335 ;
336 [label="gini = 0.0\nsamples = 265\nvalue = [265, 0]"] ;
335 -> 336 ;
337 [label="x[0] <= 0.785\ngini = 0.019\nsamples = 305\nvalue = [302.0, 3.0]"] ;
335 -> 337 ;
338 [label="x[1] <= 0.655\ngini = 0.137\nsamples = 27\nvalue = [25, 2]"] ;
337 -> 338 ;
339 [label="gini = 0.0\nsamples = 18\nvalue = [18, 0]"] ;
338 -> 339 ;
340 [label="x[1] <= 0.785\ngini = 0.346\nsamples = 9\nvalue = [7, 2]"] ;
338 -> 340 ;
341 [label="gini = 0.0\nsamples = 2\nvalue = [0, 2]"] ;
340 -> 341 ;
342 [label="gini = 0.0\nsamples = 7\nvalue = [7, 0]"] ;
340 -> 342 ;
343 [label="x[3] <= 149.5\ngini = 0.007\nsamples = 278\nvalue = [277, 1]"] ;
337 -> 343 ;
344 [label="x[3] <= 148.5\ngini = 0.024\nsamples = 81\nvalue = [80, 1]"] ;
343 -> 344 ;
345 [label="gini = 0.0\nsamples = 73\nvalue = [73, 0]"] ;
344 -> 345 ;
346 [label="x[4] <= 2.5\ngini = 0.219\nsamples = 8\nvalue = [7, 1]"] ;
344 -> 346 ;
347 [label="x[1] <= 0.745\ngini = 0.444\nsamples = 3\nvalue = [2, 1]"] ;
346 -> 347 ;
348 [label="gini = 0.0\nsamples = 2\nvalue = [2, 0]"] ;
347 -> 348 ;
349 [label="gini = 0.0\nsamples = 1\nvalue = [0, 1]"] ;
347 -> 349 ;
350 [label="gini = 0.0\nsamples = 5\nvalue = [5, 0]"] ;
346 -> 350 ;
351 [label="gini = 0.0\nsamples = 197\nvalue = [197, 0]"] ;
343 -> 351 ;
352 [label="x[0] <= 0.635\ngini = 0.124\nsamples = 15\nvalue = [14, 1]"] ;
334 -> 352 ;
353 [label="gini = 0.0\nsamples = 1\nvalue = [0, 1]"] ;
352 -> 353 ;
354 [label="gini = 0.0\nsamples = 14\nvalue = [14, 0]"] ;
352 -> 354 ;
355 [label="x[1] <= 0.805\ngini = 0.002\nsamples = 899\nvalue = [898, 1]"] ;
333 -> 355 ;
356 [label="gini = 0.0\nsamples = 584\nvalue = [584, 0]"] ;
355 -> 356 ;
357 [label="x[1] <= 0.815\ngini = 0.006\nsamples = 315\nvalue = [314, 1]"] ;
355 -> 357 ;
358 [label="x[3] <= 218.5\ngini = 0.087\nsamples = 22\nvalue = [21, 1]"] ;
357 -> 358 ;
359 [label="gini = 0.0\nsamples = 13\nvalue = [13, 0]"] ;
358 -> 359 ;
360 [label="x[3] <= 223.5\ngini = 0.198\nsamples = 9\nvalue = [8, 1]"] ;
358 -> 360 ;
361 [label="gini = 0.0\nsamples = 1\nvalue = [0, 1]"] ;
360 -> 361 ;
362 [label="gini = 0.0\nsamples = 8\nvalue = [8, 0]"] ;
360 -> 362 ;
363 [label="gini = 0.0\nsamples = 293\nvalue = [293, 0]"] ;
357 -> 363 ;
364 [label="gini = 0.0\nsamples = 2117\nvalue = [2117, 0]"] ;
332 -> 364 ;
365 [label="x[3] <= 173.0\ngini = 0.049\nsamples = 40\nvalue = [39, 1]"] ;
331 -> 365 ;
366 [label="x[3] <= 168.0\ngini = 0.117\nsamples = 16\nvalue = [15, 1]"] ;
365 -> 366 ;
367 [label="gini = 0.0\nsamples = 14\nvalue = [14, 0]"] ;
366 -> 367 ;
368 [label="x[4] <= 2.5\ngini = 0.5\nsamples = 2\nvalue = [1, 1]"] ;
366 -> 368 ;
369 [label="gini = 0.0\nsamples = 1\nvalue = [1, 0]"] ;
368 -> 369 ;
370 [label="gini = 0.0\nsamples = 1\nvalue = [0, 1]"] ;
368 -> 370 ;
371 [label="gini = 0.0\nsamples = 24\nvalue = [24, 0]"] ;
365 -> 371 ;
372 [label="x[3] <= 140.0\ngini = 0.045\nsamples = 86\nvalue = [84, 2]"] ;
324 -> 372 ;
373 [label="x[3] <= 138.0\ngini = 0.32\nsamples = 10\nvalue = [8, 2]"] ;
372 -> 373 ;
374 [label="gini = 0.0\nsamples = 8\nvalue = [8, 0]"] ;
373 -> 374 ;
375 [label="gini = 0.0\nsamples = 2\nvalue = [0, 2]"] ;
373 -> 375 ;
376 [label="gini = 0.0\nsamples = 76\nvalue = [76, 0]"] ;
372 -> 376 ;
377 [label="x[0] <= 0.795\ngini = 0.027\nsamples = 367\nvalue = [362, 5]"] ;
323 -> 377 ;
378 [label="gini = 0.0\nsamples = 201\nvalue = [201, 0]"] ;
377 -> 378 ;
379 [label="x[0] <= 0.805\ngini = 0.058\nsamples = 166\nvalue = [161, 5]"] ;
377 -> 379 ;
380 [label="x[2] <= 3.5\ngini = 0.32\nsamples = 10\nvalue = [8, 2]"] ;
379 -> 380 ;
381 [label="x[3] <= 269.0\ngini = 0.5\nsamples = 4\nvalue = [2, 2]"] ;
380 -> 381 ;
382 [label="gini = 0.0\nsamples = 2\nvalue = [0, 2]"] ;
381 -> 382 ;
383 [label="gini = 0.0\nsamples = 2\nvalue = [2, 0]"] ;
381 -> 383 ;
384 [label="gini = 0.0\nsamples = 6\nvalue = [6, 0]"] ;
380 -> 384 ;
385 [label="x[3] <= 263.5\ngini = 0.038\nsamples = 156\nvalue = [153, 3]"] ;
379 -> 385 ;
386 [label="x[2] <= 4.5\ngini = 0.245\nsamples = 14\nvalue = [12, 2]"] ;
385 -> 386 ;
387 [label="gini = 0.0\nsamples = 10\nvalue = [10, 0]"] ;
386 -> 387 ;
388 [label="x[4] <= 2.5\ngini = 0.5\nsamples = 4\nvalue = [2, 2]"] ;
386 -> 388 ;
389 [label="gini = 0.0\nsamples = 2\nvalue = [0, 2]"] ;
388 -> 389 ;
390 [label="gini = 0.0\nsamples = 2\nvalue = [2, 0]"] ;
388 -> 390 ;
391 [label="x[1] <= 0.945\ngini = 0.014\nsamples = 142\nvalue = [141, 1]"] ;
385 -> 391 ;
392 [label="gini = 0.0\nsamples = 134\nvalue = [134, 0]"] ;
391 -> 392 ;
393 [label="x[2] <= 4.5\ngini = 0.219\nsamples = 8\nvalue = [7, 1]"] ;
391 -> 393 ;
394 [label="gini = 0.0\nsamples = 6\nvalue = [6, 0]"] ;
393 -> 394 ;
395 [label="x[0] <= 0.88\ngini = 0.5\nsamples = 2\nvalue = [1, 1]"] ;
393 -> 395 ;
396 [label="gini = 0.0\nsamples = 1\nvalue = [1, 0]"] ;
395 -> 396 ;
397 [label="gini = 0.0\nsamples = 1\nvalue = [0, 1]"] ;
395 -> 397 ;
398 [label="x[0] <= 0.475\ngini = 0.068\nsamples = 990\nvalue = [955, 35]"] ;
236 -> 398 ;
399 [label="x[1] <= 0.515\ngini = 0.48\nsamples = 5\nvalue = [3, 2]"] ;
398 -> 399 ;
400 [label="gini = 0.0\nsamples = 2\nvalue = [0, 2]"] ;
399 -> 400 ;
401 [label="gini = 0.0\nsamples = 3\nvalue = [3, 0]"] ;
399 -> 401 ;
402 [label="x[0] <= 0.905\ngini = 0.065\nsamples = 985\nvalue = [952, 33]"] ;
398 -> 402 ;
403 [label="x[0] <= 0.895\ngini = 0.078\nsamples = 808\nvalue = [775, 33]"] ;
402 -> 403 ;
404 [label="x[1] <= 0.895\ngini = 0.073\nsamples = 790\nvalue = [760, 30]"] ;
403 -> 404 ;
405 [label="x[1] <= 0.805\ngini = 0.087\nsamples = 635\nvalue = [606, 29]"] ;
404 -> 405 ;
406 [label="x[3] <= 263.5\ngini = 0.059\nsamples = 495\nvalue = [480, 15]"] ;
405 -> 406 ;
407 [label="x[3] <= 182.5\ngini = 0.042\nsamples = 463\nvalue = [453, 10]"] ;
406 -> 407 ;
408 [label="x[3] <= 179.5\ngini = 0.077\nsamples = 200\nvalue = [192, 8]"] ;
407 -> 408 ;
409 [label="x[2] <= 2.5\ngini = 0.021\nsamples = 186\nvalue = [184, 2]"] ;
408 -> 409 ;
410 [label="x[1] <= 0.755\ngini = 0.117\nsamples = 16\nvalue = [15, 1]"] ;
409 -> 410 ;
411 [label="gini = 0.0\nsamples = 11\nvalue = [11, 0]"] ;
410 -> 411 ;
412 [label="x[0] <= 0.585\ngini = 0.32\nsamples = 5\nvalue = [4, 1]"] ;
410 -> 412 ;
413 [label="gini = 0.0\nsamples = 3\nvalue = [3, 0]"] ;
412 -> 413 ;
414 [label="x[3] <= 167.0\ngini = 0.5\nsamples = 2\nvalue = [1, 1]"] ;
412 -> 414 ;
415 [label="gini = 0.0\nsamples = 1\nvalue = [0, 1]"] ;
414 -> 415 ;
416 [label="gini = 0.0\nsamples = 1\nvalue = [1, 0]"] ;
414 -> 416 ;
417 [label="x[0] <= 0.505\ngini = 0.012\nsamples = 170\nvalue = [169, 1]"] ;
409 -> 417 ;
418 [label="x[2] <= 4.5\ngini = 0.111\nsamples = 17\nvalue = [16, 1]"] ;
417 -> 418 ;
419 [label="gini = 0.0\nsamples = 13\nvalue = [13, 0]"] ;
418 -> 419 ;
420 [label="x[7] <= 0.5\ngini = 0.375\nsamples = 4\nvalue = [3, 1]"] ;
418 -> 420 ;
421 [label="x[1] <= 0.625\ngini = 0.5\nsamples = 2\nvalue = [1, 1]"] ;
420 -> 421 ;
422 [label="gini = 0.0\nsamples = 1\nvalue = [0, 1]"] ;
421 -> 422 ;
423 [label="gini = 0.0\nsamples = 1\nvalue = [1, 0]"] ;
421 -> 423 ;
424 [label="gini = 0.0\nsamples = 2\nvalue = [2, 0]"] ;
420 -> 424 ;
425 [label="gini = 0.0\nsamples = 153\nvalue = [153, 0]"] ;
417 -> 425 ;
426 [label="x[2] <= 3.5\ngini = 0.49\nsamples = 14\nvalue = [8, 6]"] ;
408 -> 426 ;
427 [label="x[7] <= 1.5\ngini = 0.375\nsamples = 8\nvalue = [2, 6]"] ;
426 -> 427 ;
428 [label="x[2] <= 2.5\ngini = 0.245\nsamples = 7\nvalue = [1, 6]"] ;
427 -> 428 ;
429 [label="gini = 0.0\nsamples = 1\nvalue = [1, 0]"] ;
428 -> 429 ;
430 [label="gini = 0.0\nsamples = 6\nvalue = [0, 6]"] ;
428 -> 430 ;
431 [label="gini = 0.0\nsamples = 1\nvalue = [1, 0]"] ;
427 -> 431 ;
432 [label="gini = 0.0\nsamples = 6\nvalue = [6, 0]"] ;
426 -> 432 ;
433 [label="x[2] <= 4.5\ngini = 0.015\nsamples = 263\nvalue = [261, 2]"] ;
407 -> 433 ;
434 [label="gini = 0.0\nsamples = 199\nvalue = [199, 0]"] ;
433 -> 434 ;
435 [label="x[7] <= 0.5\ngini = 0.061\nsamples = 64\nvalue = [62, 2]"] ;
433 -> 435 ;
436 [label="x[0] <= 0.635\ngini = 0.159\nsamples = 23\nvalue = [21, 2]"] ;
435 -> 436 ;
437 [label="x[0] <= 0.605\ngini = 0.32\nsamples = 10\nvalue = [8, 2]"] ;
436 -> 437 ;
438 [label="gini = 0.0\nsamples = 7\nvalue = [7, 0]"] ;
437 -> 438 ;
439 [label="x[0] <= 0.615\ngini = 0.444\nsamples = 3\nvalue = [1, 2]"] ;
437 -> 439 ;
440 [label="x[1] <= 0.57\ngini = 0.5\nsamples = 2\nvalue = [1, 1]"] ;
439 -> 440 ;
441 [label="gini = 0.0\nsamples = 1\nvalue = [0, 1]"] ;
440 -> 441 ;
442 [label="gini = 0.0\nsamples = 1\nvalue = [1, 0]"] ;
440 -> 442 ;
443 [label="gini = 0.0\nsamples = 1\nvalue = [0, 1]"] ;
439 -> 443 ;
444 [label="gini = 0.0\nsamples = 13\nvalue = [13, 0]"] ;
436 -> 444 ;
445 [label="gini = 0.0\nsamples = 41\nvalue = [41, 0]"] ;
435 -> 445 ;
446 [label="x[2] <= 2.5\ngini = 0.264\nsamples = 32\nvalue = [27, 5]"] ;
406 -> 446 ;
447 [label="x[1] <= 0.685\ngini = 0.375\nsamples = 4\nvalue = [1, 3]"] ;
446 -> 447 ;
448 [label="gini = 0.0\nsamples = 3\nvalue = [0, 3]"] ;
447 -> 448 ;
449 [label="gini = 0.0\nsamples = 1\nvalue = [1, 0]"] ;
447 -> 449 ;
450 [label="x[0] <= 0.485\ngini = 0.133\nsamples = 28\nvalue = [26, 2]"] ;
446 -> 450 ;
451 [label="gini = 0.0\nsamples = 2\nvalue = [0, 2]"] ;
450 -> 451 ;
452 [label="gini = 0.0\nsamples = 26\nvalue = [26, 0]"] ;
450 -> 452 ;
453 [label="x[3] <= 249.5\ngini = 0.18\nsamples = 140\nvalue = [126, 14]"] ;
405 -> 453 ;
454 [label="x[3] <= 248.5\ngini = 0.222\nsamples = 110\nvalue = [96.0, 14.0]"] ;
453 -> 454 ;
455 [label="x[0] <= 0.605\ngini = 0.184\nsamples = 107\nvalue = [96, 11]"] ;
454 -> 455 ;
456 [label="gini = 0.0\nsamples = 23\nvalue = [23, 0]"] ;
455 -> 456 ;
457 [label="x[0] <= 0.625\ngini = 0.228\nsamples = 84\nvalue = [73, 11]"] ;
455 -> 457 ;
458 [label="x[2] <= 4.5\ngini = 0.444\nsamples = 3\nvalue = [1, 2]"] ;
457 -> 458 ;
459 [label="gini = 0.0\nsamples = 2\nvalue = [0, 2]"] ;
458 -> 459 ;
460 [label="gini = 0.0\nsamples = 1\nvalue = [1, 0]"] ;
458 -> 460 ;
461 [label="x[5] <= 0.5\ngini = 0.198\nsamples = 81\nvalue = [72, 9]"] ;
457 -> 461 ;
462 [label="x[1] <= 0.865\ngini = 0.153\nsamples = 72\nvalue = [66, 6]"] ;
461 -> 462 ;
463 [label="gini = 0.0\nsamples = 44\nvalue = [44, 0]"] ;
462 -> 463 ;
464 [label="x[1] <= 0.885\ngini = 0.337\nsamples = 28\nvalue = [22, 6]"] ;
462 -> 464 ;
465 [label="x[0] <= 0.775\ngini = 0.469\nsamples = 16\nvalue = [10, 6]"] ;
464 -> 465 ;
466 [label="x[0] <= 0.69\ngini = 0.48\nsamples = 10\nvalue = [4, 6]"] ;
465 -> 466 ;
467 [label="gini = 0.0\nsamples = 2\nvalue = [2, 0]"] ;
466 -> 467 ;
468 [label="x[3] <= 216.5\ngini = 0.375\nsamples = 8\nvalue = [2, 6]"] ;
466 -> 468 ;
469 [label="x[3] <= 180.5\ngini = 0.245\nsamples = 7\nvalue = [1, 6]"] ;
468 -> 469 ;
470 [label="gini = 0.0\nsamples = 4\nvalue = [0, 4]"] ;
469 -> 470 ;
471 [label="x[1] <= 0.875\ngini = 0.444\nsamples = 3\nvalue = [1, 2]"] ;
469 -> 471 ;
472 [label="gini = 0.0\nsamples = 1\nvalue = [1, 0]"] ;
471 -> 472 ;
473 [label="gini = 0.0\nsamples = 2\nvalue = [0, 2]"] ;
471 -> 473 ;
474 [label="gini = 0.0\nsamples = 1\nvalue = [1, 0]"] ;
468 -> 474 ;
475 [label="gini = 0.0\nsamples = 6\nvalue = [6, 0]"] ;
465 -> 475 ;
476 [label="gini = 0.0\nsamples = 12\nvalue = [12, 0]"] ;
464 -> 476 ;
477 [label="x[1] <= 0.835\ngini = 0.444\nsamples = 9\nvalue = [6, 3]"] ;
461 -> 477 ;
478 [label="x[2] <= 3.5\ngini = 0.48\nsamples = 5\nvalue = [2, 3]"] ;
477 -> 478 ;
479 [label="gini = 0.0\nsamples = 2\nvalue = [2, 0]"] ;
478 -> 479 ;
480 [label="gini = 0.0\nsamples = 3\nvalue = [0, 3]"] ;
478 -> 480 ;
481 [label="gini = 0.0\nsamples = 4\nvalue = [4, 0]"] ;
477 -> 481 ;
482 [label="gini = 0.0\nsamples = 3\nvalue = [0, 3]"] ;
454 -> 482 ;
483 [label="gini = 0.0\nsamples = 30\nvalue = [30, 0]"] ;
453 -> 483 ;
484 [label="x[1] <= 0.995\ngini = 0.013\nsamples = 155\nvalue = [154, 1]"] ;
404 -> 484 ;
485 [label="gini = 0.0\nsamples = 141\nvalue = [141, 0]"] ;
484 -> 485 ;
486 [label="x[3] <= 160.0\ngini = 0.133\nsamples = 14\nvalue = [13, 1]"] ;
484 -> 486 ;
487 [label="x[3] <= 152.0\ngini = 0.375\nsamples = 4\nvalue = [3, 1]"] ;
486 -> 487 ;
488 [label="gini = 0.0\nsamples = 3\nvalue = [3, 0]"] ;
487 -> 488 ;
489 [label="gini = 0.0\nsamples = 1\nvalue = [0, 1]"] ;
487 -> 489 ;
490 [label="gini = 0.0\nsamples = 10\nvalue = [10, 0]"] ;
486 -> 490 ;
491 [label="x[2] <= 4.5\ngini = 0.278\nsamples = 18\nvalue = [15, 3]"] ;
403 -> 491 ;
492 [label="gini = 0.0\nsamples = 13\nvalue = [13, 0]"] ;
491 -> 492 ;
493 [label="x[7] <= 0.5\ngini = 0.48\nsamples = 5\nvalue = [2, 3]"] ;
491 -> 493 ;
494 [label="gini = 0.0\nsamples = 3\nvalue = [0, 3]"] ;
493 -> 494 ;
495 [label="gini = 0.0\nsamples = 2\nvalue = [2, 0]"] ;
493 -> 495 ;
496 [label="gini = 0.0\nsamples = 177\nvalue = [177, 0]"] ;
402 -> 496 ;
497 [label="x[1] <= 0.625\ngini = 0.18\nsamples = 120\nvalue = [108, 12]"] ;
235 -> 497 ;
498 [label="gini = 0.0\nsamples = 51\nvalue = [51, 0]"] ;
497 -> 498 ;
499 [label="x[7] <= 0.5\ngini = 0.287\nsamples = 69\nvalue = [57, 12]"] ;
497 -> 499 ;
500 [label="x[1] <= 0.895\ngini = 0.401\nsamples = 36\nvalue = [26, 10]"] ;
499 -> 500 ;
501 [label="x[1] <= 0.635\ngini = 0.269\nsamples = 25\nvalue = [21, 4]"] ;
500 -> 501 ;
502 [label="gini = 0.0\nsamples = 1\nvalue = [0, 1]"] ;
501 -> 502 ;
503 [label="x[3] <= 165.5\ngini = 0.219\nsamples = 24\nvalue = [21, 3]"] ;
501 -> 503 ;
504 [label="x[3] <= 154.5\ngini = 0.42\nsamples = 10\nvalue = [7, 3]"] ;
503 -> 504 ;
505 [label="x[1] <= 0.745\ngini = 0.219\nsamples = 8\nvalue = [7, 1]"] ;
504 -> 505 ;
506 [label="x[0] <= 0.625\ngini = 0.444\nsamples = 3\nvalue = [2, 1]"] ;
505 -> 506 ;
507 [label="gini = 0.0\nsamples = 2\nvalue = [2, 0]"] ;
506 -> 507 ;
508 [label="gini = 0.0\nsamples = 1\nvalue = [0, 1]"] ;
506 -> 508 ;
509 [label="gini = 0.0\nsamples = 5\nvalue = [5, 0]"] ;
505 -> 509 ;
510 [label="gini = 0.0\nsamples = 2\nvalue = [0, 2]"] ;
504 -> 510 ;
511 [label="gini = 0.0\nsamples = 14\nvalue = [14, 0]"] ;
503 -> 511 ;
512 [label="x[3] <= 178.0\ngini = 0.496\nsamples = 11\nvalue = [5, 6]"] ;
500 -> 512 ;
513 [label="gini = 0.0\nsamples = 3\nvalue = [3, 0]"] ;
512 -> 513 ;
514 [label="x[4] <= 3.5\ngini = 0.375\nsamples = 8\nvalue = [2, 6]"] ;
512 -> 514 ;
515 [label="gini = 0.0\nsamples = 5\nvalue = [0, 5]"] ;
514 -> 515 ;
516 [label="x[3] <= 214.5\ngini = 0.444\nsamples = 3\nvalue = [2, 1]"] ;
514 -> 516 ;
517 [label="gini = 0.0\nsamples = 1\nvalue = [0, 1]"] ;
516 -> 517 ;
518 [label="gini = 0.0\nsamples = 2\nvalue = [2, 0]"] ;
516 -> 518 ;
519 [label="x[1] <= 0.705\ngini = 0.114\nsamples = 33\nvalue = [31, 2]"] ;
499 -> 519 ;
520 [label="x[0] <= 0.79\ngini = 0.346\nsamples = 9\nvalue = [7, 2]"] ;
519 -> 520 ;
521 [label="gini = 0.0\nsamples = 6\nvalue = [6, 0]"] ;
520 -> 521 ;
522 [label="x[4] <= 3.5\ngini = 0.444\nsamples = 3\nvalue = [1, 2]"] ;
520 -> 522 ;
523 [label="gini = 0.0\nsamples = 1\nvalue = [1, 0]"] ;
522 -> 523 ;
524 [label="gini = 0.0\nsamples = 2\nvalue = [0, 2]"] ;
522 -> 524 ;
525 [label="gini = 0.0\nsamples = 24\nvalue = [24, 0]"] ;
519 -> 525 ;
526 [label="gini = 0.0\nsamples = 4\nvalue = [0, 4]"] ;
234 -> 526 ;
527 [label="gini = 0.0\nsamples = 4\nvalue = [0, 4]"] ;
233 -> 527 ;
528 [label="x[1] <= 0.805\ngini = 0.496\nsamples = 1480\nvalue = [809, 671]"] ;
232 -> 528 ;
529 [label="x[3] <= 274.5\ngini = 0.067\nsamples = 573\nvalue = [553, 20]"] ;
528 -> 529 ;
530 [label="x[2] <= 6.5\ngini = 0.053\nsamples = 556\nvalue = [541, 15]"] ;
529 -> 530 ;
531 [label="x[4] <= 5.5\ngini = 0.049\nsamples = 555\nvalue = [541, 14]"] ;
530 -> 531 ;
532 [label="x[7] <= 1.5\ngini = 0.11\nsamples = 172\nvalue = [162, 10]"] ;
531 -> 532 ;
533 [label="x[0] <= 0.675\ngini = 0.063\nsamples = 154\nvalue = [149.0, 5.0]"] ;
532 -> 533 ;
534 [label="gini = 0.0\nsamples = 71\nvalue = [71, 0]"] ;
533 -> 534 ;
535 [label="x[0] <= 0.785\ngini = 0.113\nsamples = 83\nvalue = [78, 5]"] ;
533 -> 535 ;
536 [label="x[1] <= 0.595\ngini = 0.239\nsamples = 36\nvalue = [31, 5]"] ;
535 -> 536 ;
537 [label="gini = 0.0\nsamples = 16\nvalue = [16, 0]"] ;
536 -> 537 ;
538 [label="x[1] <= 0.605\ngini = 0.375\nsamples = 20\nvalue = [15, 5]"] ;
536 -> 538 ;
539 [label="gini = 0.0\nsamples = 2\nvalue = [0, 2]"] ;
538 -> 539 ;
540 [label="x[0] <= 0.77\ngini = 0.278\nsamples = 18\nvalue = [15, 3]"] ;
538 -> 540 ;
541 [label="x[1] <= 0.63\ngini = 0.124\nsamples = 15\nvalue = [14, 1]"] ;
540 -> 541 ;
542 [label="x[3] <= 226.5\ngini = 0.444\nsamples = 3\nvalue = [2, 1]"] ;
541 -> 542 ;
543 [label="gini = 0.0\nsamples = 1\nvalue = [0, 1]"] ;
542 -> 543 ;
544 [label="gini = 0.0\nsamples = 2\nvalue = [2, 0]"] ;
542 -> 544 ;
545 [label="gini = 0.0\nsamples = 12\nvalue = [12, 0]"] ;
541 -> 545 ;
546 [label="x[2] <= 4.5\ngini = 0.444\nsamples = 3\nvalue = [1, 2]"] ;
540 -> 546 ;
547 [label="gini = 0.0\nsamples = 2\nvalue = [0, 2]"] ;
546 -> 547 ;
548 [label="gini = 0.0\nsamples = 1\nvalue = [1, 0]"] ;
546 -> 548 ;
549 [label="gini = 0.0\nsamples = 47\nvalue = [47, 0]"] ;
535 -> 549 ;
550 [label="x[3] <= 241.0\ngini = 0.401\nsamples = 18\nvalue = [13, 5]"] ;
532 -> 550 ;
551 [label="x[0] <= 0.68\ngini = 0.231\nsamples = 15\nvalue = [13, 2]"] ;
550 -> 551 ;
552 [label="x[0] <= 0.615\ngini = 0.48\nsamples = 5\nvalue = [3, 2]"] ;
551 -> 552 ;
553 [label="gini = 0.0\nsamples = 3\nvalue = [3, 0]"] ;
552 -> 553 ;
554 [label="gini = 0.0\nsamples = 2\nvalue = [0, 2]"] ;
552 -> 554 ;
555 [label="gini = 0.0\nsamples = 10\nvalue = [10, 0]"] ;
551 -> 555 ;
556 [label="gini = 0.0\nsamples = 3\nvalue = [0, 3]"] ;
550 -> 556 ;
557 [label="x[3] <= 272.5\ngini = 0.021\nsamples = 383\nvalue = [379, 4]"] ;
531 -> 557 ;
558 [label="x[2] <= 4.5\ngini = 0.016\nsamples = 375\nvalue = [372, 3]"] ;
557 -> 558 ;
559 [label="gini = 0.0\nsamples = 286\nvalue = [286, 0]"] ;
558 -> 559 ;
560 [label="x[3] <= 197.0\ngini = 0.065\nsamples = 89\nvalue = [86, 3]"] ;
558 -> 560 ;
561 [label="x[3] <= 194.5\ngini = 0.17\nsamples = 32\nvalue = [29, 3]"] ;
560 -> 561 ;
562 [label="x[1] <= 0.755\ngini = 0.064\nsamples = 30\nvalue = [29, 1]"] ;
561 -> 562 ;
563 [label="gini = 0.0\nsamples = 25\nvalue = [25, 0]"] ;
562 -> 563 ;
564 [label="x[4] <= 7.0\ngini = 0.32\nsamples = 5\nvalue = [4, 1]"] ;
562 -> 564 ;
565 [label="gini = 0.0\nsamples = 1\nvalue = [0, 1]"] ;
564 -> 565 ;
566 [label="gini = 0.0\nsamples = 4\nvalue = [4, 0]"] ;
564 -> 566 ;
567 [label="gini = 0.0\nsamples = 2\nvalue = [0, 2]"] ;
561 -> 567 ;
568 [label="gini = 0.0\nsamples = 57\nvalue = [57, 0]"] ;
560 -> 568 ;
569 [label="x[7] <= 0.5\ngini = 0.219\nsamples = 8\nvalue = [7, 1]"] ;
557 -> 569 ;
570 [label="x[1] <= 0.615\ngini = 0.5\nsamples = 2\nvalue = [1, 1]"] ;
569 -> 570 ;
571 [label="gini = 0.0\nsamples = 1\nvalue = [1, 0]"] ;
570 -> 571 ;
572 [label="gini = 0.0\nsamples = 1\nvalue = [0, 1]"] ;
570 -> 572 ;
573 [label="gini = 0.0\nsamples = 6\nvalue = [6, 0]"] ;
569 -> 573 ;
574 [label="gini = 0.0\nsamples = 1\nvalue = [0, 1]"] ;
530 -> 574 ;
575 [label="x[1] <= 0.55\ngini = 0.415\nsamples = 17\nvalue = [12, 5]"] ;
529 -> 575 ;
576 [label="gini = 0.0\nsamples = 7\nvalue = [7, 0]"] ;
575 -> 576 ;
577 [label="x[1] <= 0.725\ngini = 0.5\nsamples = 10\nvalue = [5, 5]"] ;
575 -> 577 ;
578 [label="x[5] <= 0.5\ngini = 0.408\nsamples = 7\nvalue = [2, 5]"] ;
577 -> 578 ;
579 [label="gini = 0.0\nsamples = 5\nvalue = [0, 5]"] ;
578 -> 579 ;
580 [label="gini = 0.0\nsamples = 2\nvalue = [2, 0]"] ;
578 -> 580 ;
581 [label="gini = 0.0\nsamples = 3\nvalue = [3, 0]"] ;
577 -> 581 ;
582 [label="x[3] <= 216.5\ngini = 0.405\nsamples = 907\nvalue = [256, 651]"] ;
528 -> 582 ;
583 [label="x[1] <= 0.995\ngini = 0.094\nsamples = 161\nvalue = [153.0, 8.0]"] ;
582 -> 583 ;
584 [label="x[2] <= 2.5\ngini = 0.073\nsamples = 159\nvalue = [153, 6]"] ;
583 -> 584 ;
585 [label="x[0] <= 0.55\ngini = 0.355\nsamples = 13\nvalue = [10, 3]"] ;
584 -> 585 ;
586 [label="x[4] <= 5.5\ngini = 0.444\nsamples = 3\nvalue = [1, 2]"] ;
585 -> 586 ;
587 [label="gini = 0.0\nsamples = 2\nvalue = [0, 2]"] ;
586 -> 587 ;
588 [label="gini = 0.0\nsamples = 1\nvalue = [1, 0]"] ;
586 -> 588 ;
589 [label="x[1] <= 0.94\ngini = 0.18\nsamples = 10\nvalue = [9, 1]"] ;
585 -> 589 ;
590 [label="gini = 0.0\nsamples = 8\nvalue = [8, 0]"] ;
589 -> 590 ;
591 [label="x[3] <= 168.5\ngini = 0.5\nsamples = 2\nvalue = [1, 1]"] ;
589 -> 591 ;
592 [label="gini = 0.0\nsamples = 1\nvalue = [1, 0]"] ;
591 -> 592 ;
593 [label="gini = 0.0\nsamples = 1\nvalue = [0, 1]"] ;
591 -> 593 ;
594 [label="x[7] <= 0.5\ngini = 0.04\nsamples = 146\nvalue = [143, 3]"] ;
584 -> 594 ;
595 [label="x[4] <= 6.5\ngini = 0.103\nsamples = 55\nvalue = [52, 3]"] ;
594 -> 595 ;
596 [label="x[0] <= 0.815\ngini = 0.18\nsamples = 30\nvalue = [27, 3]"] ;
595 -> 596 ;
597 [label="x[3] <= 186.0\ngini = 0.291\nsamples = 17\nvalue = [14, 3]"] ;
596 -> 597 ;
598 [label="x[3] <= 180.5\ngini = 0.397\nsamples = 11\nvalue = [8, 3]"] ;
597 -> 598 ;
599 [label="x[3] <= 136.0\ngini = 0.32\nsamples = 10\nvalue = [8, 2]"] ;
598 -> 599 ;
600 [label="gini = 0.0\nsamples = 4\nvalue = [4, 0]"] ;
599 -> 600 ;
601 [label="x[3] <= 165.5\ngini = 0.444\nsamples = 6\nvalue = [4, 2]"] ;
599 -> 601 ;
602 [label="x[1] <= 0.825\ngini = 0.444\nsamples = 3\nvalue = [1, 2]"] ;
601 -> 602 ;
603 [label="gini = 0.0\nsamples = 1\nvalue = [1, 0]"] ;
602 -> 603 ;
604 [label="gini = 0.0\nsamples = 2\nvalue = [0, 2]"] ;
602 -> 604 ;
605 [label="gini = 0.0\nsamples = 3\nvalue = [3, 0]"] ;
601 -> 605 ;
606 [label="gini = 0.0\nsamples = 1\nvalue = [0, 1]"] ;
598 -> 606 ;
607 [label="gini = 0.0\nsamples = 6\nvalue = [6, 0]"] ;
597 -> 607 ;
608 [label="gini = 0.0\nsamples = 13\nvalue = [13, 0]"] ;
596 -> 608 ;
609 [label="gini = 0.0\nsamples = 25\nvalue = [25, 0]"] ;
595 -> 609 ;
610 [label="gini = 0.0\nsamples = 91\nvalue = [91, 0]"] ;
594 -> 610 ;
611 [label="gini = 0.0\nsamples = 2\nvalue = [0, 2]"] ;
583 -> 611 ;
612 [label="x[4] <= 6.5\ngini = 0.238\nsamples = 746\nvalue = [103, 643]"] ;
582 -> 612 ;
613 [label="x[0] <= 0.715\ngini = 0.141\nsamples = 696\nvalue = [53, 643]"] ;
612 -> 613 ;
614 [label="x[1] <= 0.915\ngini = 0.35\nsamples = 31\nvalue = [24, 7]"] ;
613 -> 614 ;
615 [label="gini = 0.0\nsamples = 19\nvalue = [19, 0]"] ;
614 -> 615 ;
616 [label="x[7] <= 0.5\ngini = 0.486\nsamples = 12\nvalue = [5, 7]"] ;
614 -> 616 ;
617 [label="x[3] <= 260.0\ngini = 0.278\nsamples = 6\nvalue = [1, 5]"] ;
616 -> 617 ;
618 [label="gini = 0.0\nsamples = 5\nvalue = [0, 5]"] ;
617 -> 618 ;
619 [label="gini = 0.0\nsamples = 1\nvalue = [1, 0]"] ;
617 -> 619 ;
620 [label="x[1] <= 0.995\ngini = 0.444\nsamples = 6\nvalue = [4, 2]"] ;
616 -> 620 ;
621 [label="gini = 0.0\nsamples = 4\nvalue = [4, 0]"] ;
620 -> 621 ;
622 [label="gini = 0.0\nsamples = 2\nvalue = [0, 2]"] ;
620 -> 622 ;
623 [label="x[2] <= 3.5\ngini = 0.083\nsamples = 665\nvalue = [29, 636]"] ;
613 -> 623 ;
624 [label="x[3] <= 296.5\ngini = 0.117\nsamples = 16\nvalue = [15, 1]"] ;
623 -> 624 ;
625 [label="gini = 0.0\nsamples = 15\nvalue = [15, 0]"] ;
624 -> 625 ;
626 [label="gini = 0.0\nsamples = 1\nvalue = [0, 1]"] ;
624 -> 626 ;
627 [label="x[2] <= 5.5\ngini = 0.042\nsamples = 649\nvalue = [14, 635]"] ;
623 -> 627 ;
628 [label="x[0] <= 0.925\ngini = 0.028\nsamples = 644\nvalue = [9, 635]"] ;
627 -> 628 ;
629 [label="x[5] <= 0.5\ngini = 0.025\nsamples = 643\nvalue = [8, 635]"] ;
628 -> 629 ;
630 [label="x[3] <= 223.5\ngini = 0.019\nsamples = 611\nvalue = [6, 605]"] ;
629 -> 630 ;
631 [label="x[1] <= 0.88\ngini = 0.091\nsamples = 63\nvalue = [3, 60]"] ;
630 -> 631 ;
632 [label="x[0] <= 0.805\ngini = 0.255\nsamples = 20\nvalue = [3, 17]"] ;
631 -> 632 ;
633 [label="x[0] <= 0.785\ngini = 0.469\nsamples = 8\nvalue = [3, 5]"] ;
632 -> 633 ;
634 [label="x[2] <= 4.5\ngini = 0.278\nsamples = 6\nvalue = [1, 5]"] ;
633 -> 634 ;
635 [label="gini = 0.0\nsamples = 3\nvalue = [0, 3]"] ;
634 -> 635 ;
636 [label="x[3] <= 222.0\ngini = 0.444\nsamples = 3\nvalue = [1, 2]"] ;
634 -> 636 ;
637 [label="gini = 0.0\nsamples = 1\nvalue = [1, 0]"] ;
636 -> 637 ;
638 [label="gini = 0.0\nsamples = 2\nvalue = [0, 2]"] ;
636 -> 638 ;
639 [label="gini = 0.0\nsamples = 2\nvalue = [2, 0]"] ;
633 -> 639 ;
640 [label="gini = 0.0\nsamples = 12\nvalue = [0, 12]"] ;
632 -> 640 ;
641 [label="gini = 0.0\nsamples = 43\nvalue = [0, 43]"] ;
631 -> 641 ;
642 [label="x[1] <= 0.835\ngini = 0.011\nsamples = 548\nvalue = [3, 545]"] ;
630 -> 642 ;
643 [label="x[0] <= 0.735\ngini = 0.062\nsamples = 31\nvalue = [1, 30]"] ;
642 -> 643 ;
644 [label="gini = 0.0\nsamples = 1\nvalue = [1, 0]"] ;
643 -> 644 ;
645 [label="gini = 0.0\nsamples = 30\nvalue = [0, 30]"] ;
643 -> 645 ;
646 [label="x[3] <= 243.5\ngini = 0.008\nsamples = 517\nvalue = [2, 515]"] ;
642 -> 646 ;
647 [label="x[3] <= 242.5\ngini = 0.02\nsamples = 197\nvalue = [2.0, 195.0]"] ;
646 -> 647 ;
648 [label="x[0] <= 0.895\ngini = 0.011\nsamples = 181\nvalue = [1, 180]"] ;
647 -> 648 ;
649 [label="gini = 0.0\nsamples = 165\nvalue = [0, 165]"] ;
648 -> 649 ;
650 [label="x[3] <= 231.5\ngini = 0.117\nsamples = 16\nvalue = [1, 15]"] ;
648 -> 650 ;
651 [label="x[3] <= 230.0\ngini = 0.444\nsamples = 3\nvalue = [1, 2]"] ;
650 -> 651 ;
652 [label="gini = 0.0\nsamples = 2\nvalue = [0, 2]"] ;
651 -> 652 ;
653 [label="gini = 0.0\nsamples = 1\nvalue = [1, 0]"] ;
651 -> 653 ;
654 [label="gini = 0.0\nsamples = 13\nvalue = [0, 13]"] ;
650 -> 654 ;
655 [label="x[1] <= 0.975\ngini = 0.117\nsamples = 16\nvalue = [1, 15]"] ;
647 -> 655 ;
656 [label="gini = 0.0\nsamples = 12\nvalue = [0, 12]"] ;
655 -> 656 ;
657 [label="x[7] <= 0.5\ngini = 0.375\nsamples = 4\nvalue = [1, 3]"] ;
655 -> 657 ;
658 [label="gini = 0.0\nsamples = 3\nvalue = [0, 3]"] ;
657 -> 658 ;
659 [label="gini = 0.0\nsamples = 1\nvalue = [1, 0]"] ;
657 -> 659 ;
660 [label="gini = 0.0\nsamples = 320\nvalue = [0, 320]"] ;
646 -> 660 ;
661 [label="x[1] <= 0.965\ngini = 0.117\nsamples = 32\nvalue = [2, 30]"] ;
629 -> 661 ;
662 [label="gini = 0.0\nsamples = 20\nvalue = [0, 20]"] ;
661 -> 662 ;
663 [label="x[0] <= 0.9\ngini = 0.278\nsamples = 12\nvalue = [2, 10]"] ;
661 -> 663 ;
664 [label="x[0] <= 0.835\ngini = 0.165\nsamples = 11\nvalue = [1, 10]"] ;
663 -> 664 ;
665 [label="x[3] <= 254.0\ngini = 0.375\nsamples = 4\nvalue = [1, 3]"] ;
664 -> 665 ;
666 [label="gini = 0.0\nsamples = 3\nvalue = [0, 3]"] ;
665 -> 666 ;
667 [label="gini = 0.0\nsamples = 1\nvalue = [1, 0]"] ;
665 -> 667 ;
668 [label="gini = 0.0\nsamples = 7\nvalue = [0, 7]"] ;
664 -> 668 ;
669 [label="gini = 0.0\nsamples = 1\nvalue = [1, 0]"] ;
663 -> 669 ;
670 [label="gini = 0.0\nsamples = 1\nvalue = [1, 0]"] ;
628 -> 670 ;
671 [label="gini = 0.0\nsamples = 5\nvalue = [5, 0]"] ;
627 -> 671 ;
672 [label="gini = 0.0\nsamples = 50\nvalue = [50, 0]"] ;
612 -> 672 ;
}